// Automatically generated model weights

const int fc1_in = 1, fc1_out = 20;
const float W1[fc1_out][fc1_in] = {
  { -0.041459 },
  { 0.438703 },
  { -0.943945 },
  { -0.770068 },
  { -0.627504 },
  { -0.234602 },
  { 0.800759 },
  { 0.817022 },
  { -0.886690 },
  { -0.637023 },
  { -0.699381 },
  { -0.176720 },
  { -0.218025 },
  { -0.705436 },
  { -0.312700 },
  { 0.168414 },
  { -0.244435 },
  { 1.200654 },
  { -0.757794 },
  { -0.322309 },
};

const float b1[fc1_out] = { 1.550164, 0.757242, 0.819722, -0.101335, -0.226597, 1.385532, -0.734927, 0.356536, -0.696030, 0.528001, -0.538036, 1.432885, 1.346169, -0.610641, -0.508827, 0.362151, 0.402267, -0.193463, -0.526857, -0.845486 };

const int fc2_in = 20, fc2_out = 20;
const float W2[fc2_out][fc2_in] = {
  { 0.080449, 0.170594, -0.385718, -0.053948, -0.207380, -0.278795, 0.329779, 0.427195, -0.094190, -0.247669, -0.011538, -0.312081, -0.315627, -0.066439, -0.099555, 0.411694, -0.248717, 0.503583, 0.188709, -0.212185 },
  { -0.135887, -0.073976, -0.024591, 0.130120, 0.084504, 0.119142, -0.109159, 0.075285, -0.127497, -0.183434, -0.116980, -0.042337, 0.212206, -0.090954, 0.175414, -0.041392, -0.078329, -0.033305, -0.160060, 0.117738 },
  { -0.092172, 0.155297, -0.064584, -0.153373, -0.042734, 0.169094, 0.035754, -0.147391, -0.113833, -0.179540, 0.071891, 0.114284, -0.196143, 0.209289, 0.110907, -0.202561, -0.148214, -0.066025, 0.207591, -0.190413 },
  { -0.076425, -0.038180, -0.190551, 0.001810, -0.021098, 0.020907, -0.036517, -0.017363, -0.036982, 0.159909, 0.037709, -0.092883, -0.010139, 0.095570, 0.157222, 0.095258, -0.069344, -0.088276, 0.188835, -0.190158 },
  { -0.079279, -0.214643, -0.200560, -0.047830, 0.058548, 0.076534, 0.149938, -0.215354, -0.214887, 0.009953, -0.008856, -0.166218, 0.157677, -0.019013, 0.195285, -0.067743, 0.116510, -0.198105, 0.109968, -0.062030 },
  { -0.117825, -0.187025, -0.034335, 0.178110, 0.106858, 0.130238, -0.017572, -0.055495, 0.112219, -0.202051, 0.044572, 0.080726, 0.003431, -0.211471, -0.138051, 0.001198, -0.195623, -0.047521, -0.068991, -0.139180 },
  { -0.070589, -0.099811, -0.193948, -0.060859, 0.085228, 0.087121, -0.146073, -0.000627, -0.212172, 0.169121, -0.154195, 0.206147, -0.132563, -0.077664, 0.214688, -0.126333, -0.187060, -0.002573, -0.056440, -0.018241 },
  { -0.179991, -0.155689, 0.084875, -0.102023, 0.204008, 0.077906, 0.205962, -0.032283, -0.017364, 0.051501, -0.020610, -0.079409, -0.141644, -0.179101, 0.120016, -0.112577, 0.032948, -0.105248, -0.042158, 0.048732 },
  { -1.006395, 0.319820, -0.402849, -0.028281, -0.003711, -0.389196, 0.296339, 0.048429, 0.001201, -0.270834, 0.071118, -0.652786, -0.531677, -0.018110, -0.005871, -0.036838, -0.019074, 0.101574, -0.106573, 0.095652 },
  { -1.446316, 0.089693, -0.236457, -0.003156, -0.056545, -0.757710, 0.554107, 0.289910, -0.001296, -0.144064, 0.217286, -1.136070, -0.829684, -0.038594, 0.164864, -0.006830, -0.040257, 0.459389, 0.143785, 0.200910 },
  { -0.349614, 0.062651, -0.162830, -0.124703, -0.081740, -0.756540, 0.509475, 0.436506, -0.147423, -0.299274, 0.037693, -0.541050, -0.528174, 0.019172, 0.055078, 0.293218, -0.327931, 0.482416, 0.023179, 0.065114 },
  { 0.150052, -0.073791, 0.044361, 0.068152, -0.019561, -0.236329, 0.004952, -0.195871, -0.021072, 0.097223, 0.155957, 0.059192, -0.092839, 0.209210, 0.142234, -0.232905, 0.075377, -0.097440, 0.178271, -0.083592 },
  { -0.181272, -0.075650, 0.031722, -0.045820, -0.153427, 0.079441, 0.177815, -0.068035, 0.095648, 0.209684, 0.180692, -0.161152, 0.171555, 0.007756, 0.202219, 0.030662, -0.098461, -0.042882, 0.089591, 0.200323 },
  { 0.140215, -0.294536, -0.079615, -0.009035, 0.059675, -0.082251, -0.088129, -0.131227, -0.215073, 0.060292, 0.152895, -0.073247, 0.034606, -0.133307, -0.064300, -0.180085, -0.132566, 0.103897, 0.168623, -0.076303 },
  { -0.098910, -0.115708, 0.123295, -0.172398, 0.139807, -0.078275, -0.212994, -0.114429, 0.174520, 0.134847, -0.106297, -0.071901, -0.042489, 0.005474, -0.188357, 0.057071, -0.210772, 0.033182, 0.183644, 0.091218 },
  { 0.118074, -0.163445, 0.004847, 0.135502, 0.091818, 0.100799, -0.211031, -0.139271, -0.013799, -0.215938, -0.167217, -0.167357, -0.094021, -0.158877, 0.133368, -0.167896, 0.060841, -0.138253, 0.198312, -0.137664 },
  { -0.607637, 0.407814, -0.467109, -0.193794, -0.129433, -0.440215, 0.426103, 0.193761, -0.040431, -0.449627, 0.008306, -0.467993, -0.287039, -0.217296, -0.059812, -0.049077, -0.206487, 0.507883, 0.043361, -0.065658 },
  { 0.011917, -0.219213, -0.103937, -0.265287, -0.000327, -0.062798, -0.163333, -0.010591, -0.123838, 0.108898, -0.120071, 0.112725, -0.210308, -0.190149, -0.211879, -0.317127, -0.286535, -0.222051, -0.118044, -0.219631 },
  { -0.254828, -0.112840, -0.091210, 0.057519, 0.022183, -0.021823, -0.169497, -0.172950, 0.129149, 0.030938, 0.079874, 0.031915, 0.056926, 0.209873, -0.212989, -0.136927, 0.146419, -0.081511, -0.022111, 0.163935 },
  { -0.275589, 0.249092, -0.175204, -0.075743, -0.079816, -0.437841, 0.259721, 0.306537, 0.048523, -0.479475, 0.023854, -0.291669, -0.641679, -0.137943, 0.167078, 0.383624, 0.007317, 0.409265, 0.177410, -0.181007 },
};

const float b2[fc2_out] = { 0.417659, -0.145308, -0.133851, 0.129279, -0.193899, -0.135185, -0.092807, 0.119503, 0.128421, 0.097814, 0.059062, 0.042839, -0.183893, 0.038738, -0.059538, -0.170985, 0.195149, -0.023058, -0.144153, 0.188672 };

const int fc3_in = 20, fc3_out = 20;
const float W3[fc3_out][fc3_in] = {
  { -0.406364, -0.139772, 0.125432, -0.207853, -0.151363, -0.035405, -0.010242, 0.080714, -0.119410, -0.045397, -0.115399, -0.299079, 0.070745, -0.027112, 0.175857, -0.094433, -0.202367, -0.130884, 0.175752, -0.134154 },
  { 0.429839, 0.019075, 0.150459, -0.100697, 0.206302, -0.072055, -0.106687, 0.057083, 0.787830, 0.561167, -0.165882, 0.082449, 0.094057, 0.075759, -0.220297, -0.125303, -0.158122, 0.126046, -0.075271, -0.061515 },
  { 0.335102, 0.036215, 0.048500, -0.055589, -0.213655, 0.144584, -0.026412, -0.123332, 0.402047, 0.280292, 0.570971, -0.063764, 0.183691, 0.071394, -0.162861, 0.129315, 0.277319, -0.028638, -0.076805, 0.436041 },
  { 0.032283, -0.074403, 0.108602, -0.045631, 0.034810, 0.217761, -0.009042, -0.158773, 0.139310, -0.119261, -0.174720, -0.063476, 0.137437, -0.025508, -0.221553, 0.173499, -0.297813, -0.250033, -0.162665, 0.038201 },
  { 0.268602, -0.084539, -0.217146, 0.178943, -0.198004, 0.145730, 0.129302, -0.153140, 0.069412, -0.214681, -0.040261, -0.009173, -0.005005, -0.152157, 0.010566, 0.167969, -0.085883, 0.250268, 0.202343, 0.228189 },
  { 0.442241, 0.167037, -0.170069, -0.222634, -0.165581, 0.142749, -0.130214, 0.144734, 0.138338, 0.376527, 0.357128, 0.045639, -0.204818, 0.006939, 0.047372, 0.113786, 0.248451, 0.099188, 0.142179, 0.173746 },
  { -0.212920, -0.209829, 0.101410, -0.013351, -0.066278, 0.117213, -0.053802, 0.208238, -0.048632, -0.054030, -0.183668, 0.009362, -0.174131, 0.034623, 0.085042, 0.112141, -0.005662, 0.059069, -0.075449, -0.269746 },
  { 0.068532, 0.174863, -0.220918, 0.212154, 0.166313, -0.184117, 0.214017, 0.205689, -0.095959, -0.130372, -0.065597, -0.216749, -0.005528, 0.006279, 0.071668, -0.044971, -0.088314, -0.051759, -0.210233, 0.096628 },
  { -0.103965, 0.110672, -0.140668, 0.012143, -0.151713, -0.137612, 0.081564, 0.086312, 0.008649, -0.219605, -0.126868, -0.118779, 0.194038, 0.163949, -0.107090, -0.112690, -0.023268, 0.117088, -0.219900, -0.007013 },
  { 0.543110, 0.028456, 0.214726, -0.223593, -0.198665, -0.111238, 0.219495, -0.205795, 0.423350, 0.449970, 0.246002, 0.114779, -0.096393, 0.090637, -0.216256, -0.109074, 0.454179, -0.100753, 0.109034, 0.323679 },
  { -0.016450, -0.157947, 0.193859, -0.128472, 0.003354, 0.104691, -0.147830, -0.116561, -0.184142, -0.076107, -0.124544, -0.039877, -0.150083, -0.217883, 0.154795, 0.004730, 0.057912, -0.100177, -0.061576, -0.313451 },
  { 0.281487, 0.102334, -0.081496, -0.186601, -0.164834, 0.023529, -0.009832, 0.132710, 0.052974, -0.233557, -0.016826, 0.020493, 0.077463, -0.062401, 0.150816, -0.118198, -0.113197, -0.033501, 0.120149, 0.226798 },
  { 0.015718, -0.195746, -0.117301, 0.199467, -0.012167, -0.195392, 0.202474, -0.212992, 0.190954, -0.081278, -0.109435, -0.193102, -0.146983, 0.064804, -0.202984, -0.064557, -0.153099, -0.073195, 0.127917, -0.113937 },
  { 0.118153, 0.115798, -0.041264, -0.163406, -0.155968, -0.127950, 0.178457, -0.190570, -0.168757, -0.004332, 0.071451, 0.099568, 0.216222, -0.195737, -0.184052, -0.152963, -0.107204, -0.117611, -0.155447, -0.170750 },
  { 0.463099, 0.173668, -0.097528, -0.072430, 0.220175, 0.008782, -0.112567, -0.175849, 0.156511, 0.511307, 0.571488, 0.105384, -0.013021, -0.070507, 0.139718, 0.155375, 0.526446, -0.219376, -0.044755, 0.304727 },
  { -0.252860, -0.106493, 0.096536, -0.003435, -0.087934, 0.077165, 0.170406, 0.081371, -0.250470, -0.192926, -0.210777, 0.117915, 0.040210, -0.215082, 0.176641, -0.032653, -0.163870, 0.017501, -0.022472, -0.122189 },
  { 0.422278, -0.059086, 0.205379, -0.190011, 0.101929, 0.183821, -0.113275, -0.002544, 0.233506, 0.469090, 0.238655, -0.252676, 0.098658, -0.054134, 0.094285, -0.218864, 0.025663, 0.006017, 0.055821, 0.254652 },
  { 0.022341, 0.117104, -0.018221, 0.070923, -0.191738, -0.135679, 0.127717, 0.168868, 0.264064, 0.388028, 0.141260, 0.151715, 0.021046, -0.199380, -0.110280, -0.181120, 0.059476, -0.132405, 0.006079, 0.161193 },
  { -0.147680, 0.080165, -0.144984, -0.126079, 0.160836, -0.061759, 0.048383, 0.216699, 0.083981, -0.220382, 0.214812, -0.255626, -0.180203, 0.060662, -0.092474, -0.180390, -0.034870, -0.195532, -0.068692, 0.046799 },
  { -0.063292, 0.045507, -0.073125, 0.031387, 0.159218, -0.033643, 0.125901, -0.012333, 0.131574, -0.167489, 0.100869, 0.051504, -0.111353, -0.080497, 0.070903, -0.074555, -0.145416, 0.154201, -0.208899, 0.198195 },
};

const float b3[fc3_out] = { -0.114368, -0.025210, 0.249818, -0.215349, 0.294311, 0.324815, -0.004817, 0.677860, -0.192147, 0.139115, -0.206533, 0.277240, -0.383918, -0.127268, 0.021691, 0.293283, 0.021567, -0.146081, -0.244384, -0.160011 };

const int fc4_in = 20, fc4_out = 1;
const float W4[fc4_out][fc4_in] = {
  { -0.030490, 0.763756, 0.530714, -0.016958, -0.308808, 0.459487, -0.115408, -0.451750, -0.042509, 0.366666, 0.066763, -0.213571, -0.073165, -0.147077, 0.515829, -0.262546, 0.269788, 0.170973, -0.012355, -0.113501 },
};

const float b4[fc4_out] = { 0.183474 };

